34 128
34 -0.044357 -0.243002 0.058274 0.034039 0.000859 -0.078158 0.128039 -0.005855 -0.126102 0.082616 -0.097584 0.069017 0.048268 -0.156273 -0.043473 -0.210774 -0.029874 -0.098981 0.055809 0.068324 0.208457 0.014365 0.198597 -0.007970 -0.080920 0.009452 -0.081105 0.040688 0.016620 0.202185 -0.048479 0.076933 -0.056982 0.060338 -0.159171 -0.142678 0.217596 0.076540 -0.021166 -0.137748 -0.251703 0.092507 0.017049 0.108960 -0.044063 0.221244 -0.047027 -0.112133 -0.111588 0.013934 -0.081280 0.182951 0.047781 0.060890 -0.179311 -0.048500 -0.114454 -0.060775 -0.080231 0.062070 0.120282 -0.135184 -0.080182 0.174182 0.070963 -0.258762 -0.064474 0.037856 -0.044007 -0.059272 -0.031303 0.065145 -0.025850 -0.031854 -0.006758 -0.039470 0.080547 0.103436 -0.002393 0.165864 -0.075860 -0.241921 -0.027972 -0.227993 -0.091593 0.321087 -0.015927 -0.020313 -0.136966 -0.048821 0.112747 0.025177 0.082867 -0.109574 -0.004637 0.168059 -0.140585 -0.020997 0.073958 -0.231946 -0.247506 0.037471 -0.177139 -0.040274 0.126780 0.104071 0.238858 0.054465 -0.005259 -0.080774 0.016254 -0.054342 -0.039633 -0.037128 -0.061225 -0.031832 -0.137052 0.081305 -0.134731 -0.003739 -0.121562 -0.170431 0.029173 -0.210045 0.048781 0.123199 -0.007951 -0.007130
1 -0.028291 -0.292682 0.026245 0.035456 -0.031799 -0.155099 0.148475 0.126770 -0.009258 0.070355 -0.056822 0.103675 0.050250 -0.173285 0.051076 -0.246239 -0.066702 -0.183264 0.059105 -0.018810 0.224622 -0.050721 0.177432 -0.021657 0.029151 0.025448 -0.051975 -0.004869 0.103155 0.189835 -0.042113 -0.010919 -0.040770 0.054583 -0.128822 -0.191623 0.224127 0.052007 -0.045048 -0.142222 -0.163371 -0.005764 0.004905 0.146515 -0.102469 0.217922 -0.007265 -0.077549 -0.010560 0.054648 -0.161591 0.112821 0.045693 0.066389 -0.179828 -0.030286 -0.061862 0.009827 -0.033139 0.028403 0.164245 -0.148357 -0.003227 0.162719 0.001973 -0.118831 -0.072289 0.060526 -0.025229 -0.083525 -0.118931 0.041402 -0.081937 -0.054907 0.121567 0.066572 0.098360 0.010700 0.015483 -0.003250 -0.127739 -0.139291 -0.011369 -0.131491 -0.118364 0.147265 0.123054 -0.059508 -0.007503 -0.011421 0.188953 -0.063813 0.062128 -0.060894 -0.049352 0.118677 -0.077911 -0.143035 0.118361 -0.082646 -0.171047 0.009472 -0.175788 0.024595 0.066125 0.070591 0.159019 0.030014 0.000517 -0.068521 0.020248 0.075769 0.002824 0.013397 -0.163507 -0.035085 -0.076586 0.043975 -0.113729 -0.101376 -0.066107 -0.068342 0.121514 -0.238735 -0.056184 0.031058 0.071076 0.033654
33 -0.043097 -0.229342 0.059535 0.033179 0.005543 -0.063510 0.116472 -0.022544 -0.134514 0.084172 -0.094416 0.061255 0.044643 -0.148710 -0.050069 -0.190932 -0.028212 -0.079952 0.043065 0.073901 0.202151 0.025649 0.194937 -0.007240 -0.100389 0.010366 -0.088016 0.049210 0.004432 0.195348 -0.052170 0.092751 -0.053332 0.060515 -0.161518 -0.136576 0.204380 0.076830 -0.021865 -0.129676 -0.255857 0.104067 0.016445 0.093833 -0.033578 0.219226 -0.054300 -0.111962 -0.130683 0.004186 -0.068752 0.192507 0.045053 0.052213 -0.172804 -0.044856 -0.124631 -0.068745 -0.078836 0.068434 0.115220 -0.134251 -0.089574 0.169915 0.083146 -0.272482 -0.054513 0.033202 -0.043483 -0.048819 -0.010747 0.067746 -0.012122 -0.029028 -0.029936 -0.050780 0.078252 0.109227 -0.006792 0.183705 -0.056700 -0.245946 -0.031187 -0.233077 -0.089215 0.336224 -0.038589 -0.014197 -0.150883 -0.050956 0.102254 0.039993 0.083918 -0.113141 0.010760 0.169925 -0.142039 -0.003492 0.068281 -0.247533 -0.247264 0.034023 -0.170336 -0.041387 0.136405 0.099333 0.237819 0.054411 -0.003441 -0.081488 0.013015 -0.075047 -0.045385 -0.050594 -0.034889 -0.029330 -0.143879 0.075705 -0.133129 0.005563 -0.120907 -0.177136 0.015021 -0.185012 0.069748 0.125254 -0.028098 -0.016797
3 -0.034821 -0.266715 0.040460 0.033200 -0.018107 -0.120198 0.138345 0.069196 -0.064578 0.071919 -0.069390 0.084486 0.045010 -0.168412 0.012073 -0.231231 -0.049855 -0.148607 0.055042 0.015556 0.213587 -0.018659 0.183366 -0.012075 -0.016367 0.020412 -0.066023 0.015987 0.071418 0.197181 -0.046236 0.020687 -0.051455 0.060528 -0.142934 -0.176224 0.226193 0.065042 -0.036152 -0.138014 -0.197748 0.028527 0.007517 0.135291 -0.078596 0.224648 -0.023102 -0.094843 -0.059848 0.035362 -0.126474 0.138077 0.042200 0.065371 -0.182824 -0.038671 -0.084414 -0.020876 -0.055454 0.046900 0.143855 -0.140253 -0.033076 0.173901 0.031475 -0.180502 -0.066415 0.055219 -0.031882 -0.077703 -0.082262 0.057840 -0.062837 -0.045544 0.073531 0.022018 0.094170 0.050708 0.008653 0.068229 -0.107737 -0.181055 -0.021767 -0.174516 -0.106863 0.225771 0.068053 -0.043454 -0.064844 -0.028581 0.160614 -0.027227 0.071467 -0.084779 -0.033116 0.142833 -0.108857 -0.089912 0.102412 -0.147158 -0.207118 0.018780 -0.182560 0.001130 0.093895 0.088801 0.190656 0.041720 0.001418 -0.078589 0.021712 0.021995 -0.012946 -0.007734 -0.121553 -0.031266 -0.104981 0.059205 -0.118078 -0.061628 -0.091462 -0.118241 0.082462 -0.230017 -0.012936 0.071025 0.039932 0.018070
2 -0.017620 -0.298299 0.022106 0.035132 -0.034168 -0.155338 0.152144 0.132709 -0.019612 0.070654 -0.058492 0.110667 0.052747 -0.180831 0.055557 -0.254858 -0.073117 -0.183384 0.060019 -0.014231 0.231850 -0.049183 0.185877 -0.027935 0.023681 0.031909 -0.055466 -0.006678 0.112812 0.199889 -0.036104 -0.020145 -0.046883 0.065004 -0.132638 -0.194980 0.236398 0.050265 -0.046484 -0.139539 -0.155366 -0.009613 0.003186 0.153787 -0.104719 0.224308 -0.011878 -0.083553 -0.011351 0.047080 -0.166537 0.098791 0.052959 0.070985 -0.185663 -0.028055 -0.058926 0.012380 -0.034964 0.028352 0.163643 -0.146863 0.002314 0.163385 0.005462 -0.110803 -0.075284 0.054960 -0.023836 -0.088828 -0.128663 0.048464 -0.084622 -0.060201 0.131721 0.077447 0.098385 0.014304 0.012594 -0.004482 -0.136747 -0.144591 -0.017435 -0.126816 -0.115695 0.156779 0.133141 -0.063037 -0.002650 -0.012615 0.200881 -0.069405 0.059983 -0.071741 -0.056054 0.120502 -0.085965 -0.147191 0.114539 -0.081096 -0.166237 0.001469 -0.178335 0.026263 0.061532 0.064960 0.162112 0.036291 -0.007142 -0.074239 0.018923 0.081504 0.007457 0.012507 -0.169065 -0.036328 -0.079293 0.040872 -0.115795 -0.104968 -0.067910 -0.075953 0.129729 -0.247759 -0.054795 0.030772 0.084333 0.033809
4 -0.029524 -0.272308 0.034047 0.034428 -0.021535 -0.134590 0.136967 0.095807 -0.046610 0.069401 -0.062374 0.093280 0.050548 -0.170102 0.027304 -0.237591 -0.056103 -0.161388 0.060558 0.007435 0.218625 -0.031512 0.178122 -0.022852 -0.000424 0.026993 -0.062252 0.009758 0.087364 0.192061 -0.043379 0.002431 -0.046181 0.059258 -0.138472 -0.182419 0.231295 0.062420 -0.037451 -0.135305 -0.180547 0.009959 0.008069 0.144235 -0.083293 0.219899 -0.020728 -0.093367 -0.043904 0.037427 -0.139380 0.119744 0.047912 0.067604 -0.184471 -0.032043 -0.073184 -0.009439 -0.045753 0.036379 0.155890 -0.144897 -0.017397 0.168858 0.026131 -0.150566 -0.075123 0.055583 -0.028769 -0.081791 -0.099748 0.055095 -0.068624 -0.054720 0.096629 0.040925 0.097773 0.041466 0.006270 0.046285 -0.116918 -0.172765 -0.019939 -0.155041 -0.107791 0.198285 0.097464 -0.054515 -0.038650 -0.020442 0.171558 -0.046613 0.061689 -0.079366 -0.039448 0.132277 -0.102931 -0.113163 0.106359 -0.124965 -0.192959 0.012875 -0.176010 0.016856 0.079313 0.082728 0.176547 0.040115 -0.004057 -0.078572 0.024221 0.043333 -0.005999 0.002774 -0.139741 -0.030777 -0.095964 0.052005 -0.119144 -0.077680 -0.079656 -0.100029 0.095555 -0.239068 -0.031939 0.056449 0.060428 0.023261
32 -0.039560 -0.253583 0.042355 0.031263 -0.010060 -0.095016 0.131290 0.021663 -0.101894 0.078641 -0.082789 0.076354 0.046288 -0.156693 -0.017979 -0.210022 -0.039840 -0.122910 0.049962 0.044650 0.212303 0.005594 0.187205 -0.010341 -0.061626 0.014017 -0.080362 0.032125 0.039529 0.196376 -0.048050 0.051419 -0.045831 0.057480 -0.156682 -0.157739 0.223392 0.075764 -0.032585 -0.146351 -0.228987 0.064311 0.006230 0.113780 -0.062851 0.226033 -0.035801 -0.095839 -0.089951 0.014804 -0.101224 0.167048 0.037705 0.059681 -0.178121 -0.044066 -0.098395 -0.043837 -0.070651 0.054659 0.132709 -0.135616 -0.059810 0.179617 0.044062 -0.224893 -0.070141 0.051171 -0.040648 -0.068842 -0.057105 0.069783 -0.042012 -0.040775 0.026033 -0.009794 0.082618 0.080290 -0.000258 0.124153 -0.089980 -0.213056 -0.019603 -0.199913 -0.098840 0.280917 0.020671 -0.030065 -0.101983 -0.046685 0.136665 0.004590 0.084499 -0.100541 -0.006574 0.153329 -0.122643 -0.053745 0.083518 -0.204366 -0.229102 0.024191 -0.184580 -0.018790 0.120378 0.106425 0.223201 0.047778 -0.003406 -0.075149 0.018787 -0.025329 -0.024210 -0.019543 -0.084041 -0.030011 -0.125882 0.070097 -0.120101 -0.036135 -0.109524 -0.153816 0.050596 -0.217770 0.030797 0.096960 0.002545 0.004918
24 -0.038821 -0.241504 0.051012 0.032762 -0.005346 -0.082346 0.124154 0.002965 -0.112165 0.081434 -0.084386 0.068777 0.050488 -0.155885 -0.033418 -0.208123 -0.034923 -0.107544 0.052406 0.056378 0.209146 0.014187 0.191553 -0.000838 -0.072961 0.014363 -0.083787 0.032293 0.020703 0.200182 -0.051437 0.067066 -0.052149 0.051968 -0.155549 -0.149031 0.217077 0.071989 -0.028231 -0.145376 -0.238891 0.081764 0.007780 0.108034 -0.050994 0.227343 -0.047979 -0.095539 -0.099869 0.008294 -0.084201 0.177816 0.036195 0.059656 -0.167976 -0.040568 -0.100439 -0.055998 -0.079823 0.059157 0.122903 -0.133089 -0.066125 0.174415 0.052933 -0.243627 -0.066864 0.047282 -0.047105 -0.058084 -0.038811 0.070853 -0.035144 -0.035926 0.007337 -0.030037 0.073268 0.089628 -0.004122 0.151358 -0.076885 -0.221078 -0.023261 -0.208187 -0.097793 0.295181 -0.007451 -0.021121 -0.120245 -0.048034 0.121249 0.015321 0.089090 -0.104732 0.001275 0.160784 -0.126628 -0.033143 0.079138 -0.221174 -0.243487 0.034989 -0.177479 -0.024714 0.126140 0.109944 0.233093 0.054864 -0.001432 -0.075979 0.019432 -0.046932 -0.033297 -0.031074 -0.074960 -0.034414 -0.134164 0.069337 -0.122918 -0.017286 -0.114576 -0.165901 0.036392 -0.213945 0.047675 0.113931 -0.007864 -0.001038
14 -0.038223 -0.259334 0.048432 0.028618 -0.010683 -0.101395 0.127608 0.039750 -0.089630 0.079359 -0.083731 0.081667 0.047209 -0.161933 -0.009317 -0.221060 -0.042624 -0.126821 0.058325 0.035837 0.216551 -0.001807 0.190370 -0.011338 -0.046386 0.023458 -0.068582 0.029840 0.045893 0.201629 -0.046556 0.043688 -0.052656 0.063525 -0.146637 -0.164547 0.220110 0.066672 -0.032158 -0.139695 -0.221052 0.051816 0.011205 0.126912 -0.061382 0.224763 -0.036204 -0.097327 -0.079217 0.025970 -0.113571 0.152423 0.045381 0.064340 -0.178503 -0.040014 -0.097940 -0.033782 -0.069010 0.048722 0.136031 -0.142389 -0.047569 0.166113 0.045587 -0.204641 -0.065006 0.045076 -0.039892 -0.068549 -0.065520 0.063183 -0.045935 -0.039093 0.044463 0.001226 0.089432 0.071614 0.002262 0.105371 -0.094737 -0.207441 -0.022455 -0.188993 -0.103996 0.264683 0.033234 -0.038727 -0.088595 -0.038042 0.141522 -0.010838 0.074888 -0.096976 -0.021528 0.151764 -0.122755 -0.060723 0.092343 -0.178746 -0.224074 0.022810 -0.176128 -0.009646 0.105056 0.095990 0.212557 0.053090 -0.008215 -0.081298 0.014100 -0.013343 -0.025257 -0.018847 -0.094308 -0.034857 -0.121794 0.063604 -0.128116 -0.039244 -0.102568 -0.139665 0.059257 -0.225224 0.017671 0.089143 0.018822 0.006094
7 -0.007337 -0.329414 -0.002065 0.048970 -0.059137 -0.197535 0.176740 0.205455 0.067380 0.066652 -0.033509 0.130558 0.048958 -0.191488 0.119776 -0.263922 -0.093966 -0.241718 0.047286 -0.068975 0.241548 -0.098415 0.172598 -0.031733 0.103808 0.021958 -0.045717 -0.049244 0.148465 0.193418 -0.024419 -0.060285 -0.031921 0.042489 -0.113773 -0.220648 0.236112 0.043488 -0.073096 -0.142366 -0.118199 -0.048727 -0.003702 0.165909 -0.146664 0.228058 0.030275 -0.059247 0.053666 0.083602 -0.209705 0.081274 0.046656 0.064645 -0.177611 -0.025088 -0.036055 0.044232 0.014303 0.005882 0.194274 -0.150834 0.049457 0.165445 -0.036106 -0.044101 -0.076656 0.072750 -0.001530 -0.105431 -0.174876 0.035156 -0.135944 -0.062952 0.207288 0.138451 0.098300 -0.039012 0.022961 -0.108270 -0.162393 -0.063986 0.002456 -0.068787 -0.139827 0.044267 0.210284 -0.079218 0.062091 0.015703 0.247288 -0.114774 0.059752 -0.027401 -0.077277 0.104011 -0.031620 -0.219267 0.142991 0.003554 -0.120525 -0.008180 -0.193956 0.061772 0.020918 0.037329 0.105032 0.006863 0.013250 -0.059329 0.029626 0.168686 0.025774 0.035245 -0.226641 -0.030300 -0.043285 0.017675 -0.101331 -0.150699 -0.031582 -0.006300 0.201046 -0.257369 -0.129504 -0.025759 0.126748 0.062202
6 -0.011521 -0.339586 0.002550 0.054089 -0.056870 -0.204405 0.182291 0.210580 0.061414 0.069134 -0.031672 0.131624 0.048804 -0.192587 0.120757 -0.272125 -0.097372 -0.252230 0.055867 -0.072382 0.247237 -0.100631 0.177630 -0.038397 0.104838 0.022558 -0.043314 -0.052263 0.154959 0.205573 -0.027110 -0.068994 -0.027831 0.045076 -0.113844 -0.225918 0.247581 0.052017 -0.077953 -0.150861 -0.121763 -0.049713 -0.002482 0.166178 -0.153989 0.236240 0.031525 -0.063754 0.055045 0.088037 -0.212868 0.084087 0.043283 0.063142 -0.177823 -0.031056 -0.036136 0.045537 0.011663 -0.000132 0.203136 -0.152781 0.049956 0.170968 -0.037483 -0.051358 -0.085308 0.073374 -0.005535 -0.107314 -0.176962 0.034703 -0.140418 -0.063025 0.214061 0.139357 0.103297 -0.036536 0.022433 -0.103988 -0.172413 -0.067729 0.006875 -0.073690 -0.137820 0.047668 0.221553 -0.083921 0.063401 0.012295 0.251082 -0.116816 0.060566 -0.025597 -0.076524 0.104968 -0.034465 -0.225539 0.153259 -0.002966 -0.123193 -0.009987 -0.196004 0.065436 0.022295 0.048355 0.113678 0.011278 0.014225 -0.061910 0.031583 0.170740 0.026940 0.043573 -0.231996 -0.028141 -0.043634 0.018996 -0.101703 -0.161968 -0.031951 -0.014746 0.206032 -0.275373 -0.133585 -0.020371 0.130005 0.056787
8 -0.028085 -0.260319 0.036523 0.031370 -0.022217 -0.114011 0.132086 0.072944 -0.056962 0.073017 -0.068440 0.084842 0.043043 -0.158698 0.019078 -0.222918 -0.049129 -0.141288 0.058155 0.017528 0.205389 -0.021322 0.174466 -0.021531 -0.014955 0.028290 -0.060712 0.015751 0.068416 0.188100 -0.042624 0.016143 -0.044462 0.060515 -0.134991 -0.169289 0.219073 0.058334 -0.031985 -0.127259 -0.183275 0.023698 0.003192 0.132311 -0.072319 0.214659 -0.026703 -0.088797 -0.052354 0.033189 -0.128790 0.122473 0.049068 0.064106 -0.174260 -0.032645 -0.081353 -0.019310 -0.051829 0.037229 0.136756 -0.137216 -0.025925 0.160379 0.032764 -0.163825 -0.063442 0.047181 -0.030245 -0.075786 -0.087176 0.052422 -0.060630 -0.047129 0.073722 0.029130 0.084484 0.046281 0.004322 0.059753 -0.102210 -0.175177 -0.022573 -0.155813 -0.105512 0.210825 0.074103 -0.044412 -0.052794 -0.027052 0.159030 -0.035799 0.063986 -0.080824 -0.031929 0.126588 -0.102161 -0.094235 0.092436 -0.137289 -0.185748 0.010526 -0.173006 0.004163 0.088545 0.076721 0.180958 0.036787 -0.006528 -0.077684 0.016107 0.026961 -0.008891 -0.006254 -0.122541 -0.029362 -0.100529 0.050471 -0.116787 -0.062352 -0.085653 -0.110291 0.086513 -0.217590 -0.011027 0.058874 0.046684 0.013856
30 -0.038938 -0.238372 0.050505 0.034349 -0.006450 -0.067615 0.126058 -0.014029 -0.124820 0.084228 -0.095103 0.066068 0.043916 -0.152517 -0.045161 -0.203470 -0.028655 -0.097116 0.044957 0.070038 0.203805 0.016400 0.192954 -0.006992 -0.082630 0.007256 -0.083171 0.041524 0.008500 0.197978 -0.051209 0.074930 -0.049877 0.053894 -0.161923 -0.139208 0.210332 0.079415 -0.020528 -0.142265 -0.248951 0.093052 0.013261 0.106123 -0.041402 0.222459 -0.049260 -0.108541 -0.115167 0.010049 -0.077357 0.186643 0.043701 0.051997 -0.169180 -0.045482 -0.118671 -0.063312 -0.076681 0.063598 0.118320 -0.134299 -0.073724 0.172313 0.073251 -0.258340 -0.064674 0.039968 -0.043978 -0.060734 -0.024854 0.067783 -0.022331 -0.033813 -0.011047 -0.044341 0.077557 0.103909 -0.005859 0.169260 -0.074172 -0.235830 -0.030174 -0.221117 -0.092950 0.317564 -0.024289 -0.018169 -0.138165 -0.050260 0.113718 0.024018 0.086204 -0.104400 0.004344 0.164590 -0.136132 -0.012752 0.072137 -0.233458 -0.236213 0.035065 -0.174952 -0.042552 0.128959 0.101945 0.233473 0.053789 -0.008250 -0.078427 0.013954 -0.064705 -0.042848 -0.043753 -0.049976 -0.030063 -0.140877 0.075080 -0.128576 0.001749 -0.120978 -0.167455 0.023830 -0.194684 0.057467 0.120753 -0.010421 -0.007362
28 -0.041294 -0.253169 0.048630 0.031799 -0.010298 -0.088783 0.129621 0.021170 -0.100748 0.079029 -0.080091 0.077504 0.045837 -0.152372 -0.020708 -0.212436 -0.039764 -0.122124 0.054234 0.046351 0.206373 0.003024 0.187498 -0.010271 -0.059199 0.017635 -0.080409 0.030166 0.039521 0.197021 -0.048560 0.054871 -0.044792 0.058124 -0.149089 -0.157523 0.218069 0.072468 -0.028929 -0.139629 -0.225955 0.060888 0.009353 0.116523 -0.061187 0.220504 -0.042251 -0.096480 -0.090679 0.015445 -0.103114 0.164274 0.043033 0.055143 -0.167951 -0.041755 -0.100884 -0.048289 -0.073106 0.053518 0.129656 -0.137143 -0.053537 0.173994 0.049850 -0.220892 -0.068173 0.050255 -0.043247 -0.068551 -0.054954 0.068014 -0.044909 -0.043447 0.026481 -0.011112 0.079168 0.081661 -0.005222 0.126543 -0.087517 -0.211855 -0.019800 -0.193260 -0.099543 0.275771 0.019016 -0.027205 -0.101884 -0.040533 0.134272 0.000019 0.078402 -0.099293 -0.005164 0.149019 -0.120438 -0.048310 0.084706 -0.200041 -0.227734 0.030202 -0.180720 -0.019570 0.118503 0.104235 0.222565 0.052313 -0.002119 -0.080590 0.020075 -0.023269 -0.030262 -0.023989 -0.083330 -0.034801 -0.127156 0.064065 -0.122288 -0.034734 -0.106798 -0.149454 0.052257 -0.212564 0.025008 0.094360 0.008888 0.005139
9 -0.032362 -0.252555 0.033100 0.031451 -0.016828 -0.109919 0.130106 0.055009 -0.064638 0.071520 -0.070171 0.083936 0.047361 -0.160324 0.003623 -0.214163 -0.049599 -0.133526 0.049651 0.026235 0.205446 -0.011193 0.182980 -0.015519 -0.030349 0.018983 -0.070665 0.011545 0.055314 0.191558 -0.040242 0.033414 -0.046631 0.050005 -0.137478 -0.164032 0.216815 0.064207 -0.039817 -0.133777 -0.200746 0.037106 0.006071 0.121733 -0.074337 0.214547 -0.026290 -0.089452 -0.063252 0.024458 -0.117396 0.143435 0.037797 0.057740 -0.165624 -0.038222 -0.083428 -0.026354 -0.055576 0.041978 0.136517 -0.133943 -0.039107 0.167889 0.033601 -0.184066 -0.064727 0.049211 -0.034221 -0.068626 -0.071460 0.060806 -0.051923 -0.043791 0.060099 0.011830 0.078952 0.059543 0.001687 0.081375 -0.095372 -0.180055 -0.020685 -0.173688 -0.101774 0.226203 0.051473 -0.037857 -0.071958 -0.030816 0.148939 -0.019409 0.077600 -0.079032 -0.021484 0.133568 -0.101771 -0.077511 0.092096 -0.153911 -0.204528 0.016752 -0.176204 -0.002028 0.096021 0.087190 0.188699 0.043935 -0.002977 -0.073137 0.020600 0.009459 -0.012546 -0.012520 -0.106298 -0.033083 -0.107864 0.059264 -0.114872 -0.050388 -0.091259 -0.120670 0.070161 -0.215603 -0.001822 0.077617 0.025856 0.013118
5 -0.009743 -0.333103 -0.003345 0.047055 -0.053714 -0.205511 0.177685 0.207702 0.070613 0.062699 -0.027656 0.134960 0.047167 -0.187119 0.122576 -0.271002 -0.098144 -0.247002 0.052319 -0.069187 0.242793 -0.095287 0.167915 -0.032089 0.105727 0.026034 -0.039405 -0.051099 0.156884 0.192546 -0.028747 -0.070424 -0.032981 0.050361 -0.107427 -0.226519 0.242163 0.045483 -0.071449 -0.140258 -0.104956 -0.059449 -0.007575 0.169496 -0.151684 0.225429 0.028087 -0.058843 0.056254 0.081561 -0.214762 0.073804 0.051821 0.061351 -0.175541 -0.027685 -0.029513 0.050201 0.011547 -0.003093 0.193768 -0.155390 0.054453 0.165638 -0.042146 -0.033825 -0.076867 0.068646 -0.000133 -0.107184 -0.182895 0.032139 -0.137211 -0.070866 0.216221 0.141243 0.097900 -0.047865 0.020870 -0.118045 -0.170490 -0.065208 0.001753 -0.067768 -0.140819 0.035937 0.224055 -0.079817 0.075130 0.015385 0.250555 -0.122750 0.055153 -0.026423 -0.083315 0.097489 -0.036802 -0.224022 0.149395 0.016039 -0.118634 -0.010409 -0.189801 0.062933 0.014244 0.038448 0.105614 0.007595 0.004664 -0.061247 0.025337 0.171627 0.032011 0.041156 -0.233552 -0.028641 -0.035820 0.019318 -0.093797 -0.158984 -0.027822 -0.003904 0.201460 -0.264571 -0.135134 -0.026670 0.128032 0.065886
26 -0.033275 -0.250142 0.042986 0.030198 -0.011385 -0.103276 0.132846 0.031841 -0.093099 0.073707 -0.078879 0.072519 0.049315 -0.159331 -0.010400 -0.208721 -0.040898 -0.128943 0.050649 0.035282 0.212788 -0.002101 0.186749 -0.007381 -0.049072 0.010430 -0.079747 0.021729 0.041518 0.196163 -0.041736 0.043505 -0.043558 0.046333 -0.149894 -0.157175 0.215767 0.069087 -0.034480 -0.141593 -0.212759 0.051703 0.003229 0.109930 -0.066881 0.222856 -0.033813 -0.090942 -0.079945 0.025754 -0.098403 0.159654 0.033214 0.053049 -0.169431 -0.042144 -0.087597 -0.034883 -0.067131 0.051857 0.132356 -0.132874 -0.048407 0.175609 0.037981 -0.207049 -0.065588 0.046884 -0.037202 -0.067177 -0.059164 0.064653 -0.051589 -0.039502 0.039264 -0.007093 0.076879 0.069566 -0.000285 0.105340 -0.094373 -0.191643 -0.018328 -0.183996 -0.095026 0.257326 0.026882 -0.030657 -0.090470 -0.040983 0.137536 -0.003317 0.082605 -0.084541 -0.007083 0.142278 -0.112262 -0.060450 0.089295 -0.185234 -0.213484 0.023785 -0.175562 -0.010156 0.110318 0.099908 0.209415 0.044827 0.006171 -0.067659 0.014745 -0.012215 -0.021789 -0.012971 -0.089116 -0.029544 -0.113518 0.060394 -0.110855 -0.044976 -0.100491 -0.139274 0.054242 -0.216887 0.018294 0.092044 0.008583 0.001575
29 -0.035596 -0.251501 0.041092 0.030011 -0.010843 -0.100508 0.129120 0.030019 -0.088348 0.078510 -0.077256 0.081532 0.045573 -0.159371 -0.010538 -0.215803 -0.047545 -0.127795 0.053948 0.038314 0.212467 -0.004540 0.183054 -0.011438 -0.051497 0.015421 -0.074672 0.023155 0.046447 0.197308 -0.042962 0.045353 -0.046424 0.055183 -0.150637 -0.157520 0.220446 0.070029 -0.029928 -0.141665 -0.211378 0.059029 0.003864 0.112099 -0.059414 0.223433 -0.037259 -0.095018 -0.083106 0.021135 -0.105479 0.154838 0.039742 0.057952 -0.174596 -0.036150 -0.090105 -0.036341 -0.062648 0.051421 0.132029 -0.137472 -0.052732 0.167674 0.042499 -0.209884 -0.068638 0.044633 -0.034892 -0.062104 -0.061075 0.061617 -0.046875 -0.038290 0.036349 -0.001191 0.084112 0.072139 0.001627 0.109025 -0.092166 -0.197716 -0.019791 -0.191236 -0.098319 0.259908 0.030385 -0.035477 -0.092227 -0.041655 0.137925 -0.006922 0.076800 -0.091686 -0.010690 0.149387 -0.117746 -0.054301 0.084580 -0.184385 -0.217368 0.026541 -0.174453 -0.013597 0.108289 0.091995 0.202682 0.043287 -0.001242 -0.073531 0.019103 -0.014118 -0.026992 -0.023186 -0.091723 -0.034576 -0.119001 0.060017 -0.115823 -0.036772 -0.101351 -0.137948 0.053574 -0.213327 0.022164 0.092102 0.011609 0.002219
25 -0.038582 -0.261832 0.036963 0.030040 -0.018015 -0.105161 0.131176 0.033765 -0.085172 0.076729 -0.079511 0.076383 0.048914 -0.158391 -0.008216 -0.222293 -0.042300 -0.133269 0.055303 0.039311 0.220242 -0.003188 0.193317 -0.007052 -0.047626 0.012086 -0.077185 0.020624 0.041784 0.202325 -0.043296 0.042837 -0.045220 0.049976 -0.156368 -0.162999 0.222486 0.073864 -0.039674 -0.149479 -0.223887 0.055977 0.001384 0.115537 -0.066991 0.236462 -0.033636 -0.089261 -0.075411 0.019866 -0.113897 0.164219 0.040945 0.060258 -0.179088 -0.041473 -0.087030 -0.043122 -0.070204 0.056477 0.135902 -0.135822 -0.045967 0.178014 0.034355 -0.213860 -0.071511 0.054264 -0.044131 -0.069566 -0.066952 0.066121 -0.050717 -0.040739 0.043283 -0.003867 0.077400 0.074034 0.002156 0.107257 -0.097597 -0.203883 -0.020741 -0.193031 -0.104498 0.262295 0.033596 -0.038309 -0.094908 -0.045108 0.146890 -0.011041 0.088818 -0.096997 -0.011188 0.149939 -0.116642 -0.069102 0.093393 -0.187743 -0.230655 0.024764 -0.190612 -0.007124 0.116782 0.101797 0.219433 0.050559 0.003546 -0.078306 0.016743 -0.009095 -0.020053 -0.018762 -0.105003 -0.035811 -0.118770 0.060277 -0.120292 -0.049175 -0.103657 -0.140015 0.061628 -0.229645 0.017136 0.095230 0.009720 0.006350
11 -0.015488 -0.331047 0.006065 0.048784 -0.052112 -0.204071 0.170254 0.209652 0.062194 0.062182 -0.033199 0.129577 0.046915 -0.184125 0.119860 -0.270112 -0.095189 -0.242196 0.056349 -0.072919 0.242423 -0.096316 0.175467 -0.035280 0.099257 0.025863 -0.040982 -0.044210 0.151495 0.192305 -0.025574 -0.066617 -0.030801 0.044729 -0.107649 -0.217317 0.244414 0.046985 -0.069862 -0.137023 -0.109478 -0.053146 -0.000289 0.167946 -0.146022 0.227113 0.029826 -0.057489 0.048445 0.086293 -0.208294 0.074420 0.046721 0.065093 -0.179113 -0.030281 -0.033199 0.053143 0.003833 0.003002 0.193435 -0.154343 0.051821 0.165400 -0.039821 -0.040976 -0.082892 0.069315 0.000070 -0.105104 -0.176475 0.032876 -0.136309 -0.066584 0.213004 0.139479 0.103550 -0.042988 0.021828 -0.107109 -0.163265 -0.067852 0.001478 -0.073997 -0.139774 0.049313 0.220378 -0.081711 0.067783 0.013916 0.239992 -0.120501 0.054107 -0.026857 -0.077085 0.097368 -0.034927 -0.218236 0.145070 0.007188 -0.118012 -0.005435 -0.188565 0.065059 0.019770 0.042202 0.111580 0.006345 0.011582 -0.063310 0.026197 0.169575 0.024614 0.040879 -0.228111 -0.033640 -0.045032 0.023334 -0.101432 -0.160104 -0.029874 -0.012873 0.200092 -0.266956 -0.129913 -0.025817 0.123772 0.060022
20 -0.030169 -0.271615 0.035214 0.034912 -0.023405 -0.124224 0.141344 0.074441 -0.060721 0.074166 -0.073603 0.087959 0.051672 -0.165957 0.014916 -0.230434 -0.057890 -0.145952 0.054328 0.015402 0.220446 -0.024626 0.188953 -0.019060 -0.015928 0.026294 -0.060038 0.010766 0.071390 0.193677 -0.045692 0.019661 -0.046510 0.058869 -0.136648 -0.171085 0.226409 0.058820 -0.040313 -0.139810 -0.196524 0.029045 0.003719 0.131992 -0.075043 0.221129 -0.021758 -0.091386 -0.051805 0.030510 -0.134137 0.134064 0.051506 0.058388 -0.176962 -0.034100 -0.082511 -0.023727 -0.053047 0.042004 0.148697 -0.139682 -0.028621 0.166643 0.032919 -0.172511 -0.067745 0.051020 -0.032798 -0.070813 -0.087771 0.055979 -0.062084 -0.048079 0.074093 0.030190 0.090649 0.048949 0.007175 0.067362 -0.106593 -0.183173 -0.020506 -0.170360 -0.105184 0.221927 0.068223 -0.043683 -0.061014 -0.023974 0.165381 -0.031747 0.069056 -0.084345 -0.030073 0.137079 -0.102168 -0.093237 0.095727 -0.138328 -0.199053 0.012616 -0.179216 0.005638 0.088140 0.082367 0.186232 0.041031 -0.001506 -0.074190 0.016700 0.027067 -0.012385 -0.007070 -0.122976 -0.035168 -0.099754 0.055768 -0.119404 -0.061088 -0.088062 -0.107262 0.087360 -0.228905 -0.010176 0.068445 0.040145 0.017165
31 -0.029367 -0.264119 0.040314 0.036848 -0.019270 -0.121524 0.134769 0.062085 -0.064511 0.075177 -0.067448 0.091007 0.051122 -0.167117 0.012806 -0.228212 -0.056696 -0.144453 0.055215 0.019614 0.217314 -0.021727 0.181840 -0.012176 -0.020191 0.020648 -0.066433 0.016848 0.064732 0.195410 -0.045436 0.029759 -0.050132 0.057274 -0.139657 -0.167796 0.220526 0.064314 -0.034123 -0.141020 -0.196280 0.038074 0.006677 0.125518 -0.078086 0.222956 -0.027813 -0.093359 -0.059784 0.035670 -0.128326 0.144416 0.043179 0.059660 -0.175161 -0.039764 -0.082507 -0.023519 -0.055031 0.038429 0.147879 -0.141738 -0.036070 0.166510 0.029083 -0.181462 -0.072640 0.049128 -0.032407 -0.073400 -0.080450 0.054563 -0.059685 -0.046186 0.070951 0.021084 0.091845 0.051490 0.008642 0.072184 -0.102703 -0.181055 -0.020429 -0.173610 -0.106356 0.223699 0.062229 -0.045112 -0.064045 -0.031307 0.153173 -0.022396 0.076870 -0.083743 -0.031260 0.140371 -0.106090 -0.087735 0.097514 -0.146395 -0.203956 0.019525 -0.176809 -0.002971 0.090477 0.084760 0.190585 0.041936 0.002100 -0.074262 0.016380 0.014658 -0.017096 -0.012686 -0.114358 -0.028815 -0.108116 0.060203 -0.121751 -0.057478 -0.090197 -0.117827 0.079299 -0.226524 -0.009602 0.071917 0.030570 0.014714
18 -0.023604 -0.288742 0.022824 0.033845 -0.027959 -0.148249 0.142599 0.119332 -0.022584 0.075500 -0.059672 0.105775 0.052369 -0.174282 0.049249 -0.246904 -0.067882 -0.174224 0.054131 -0.007267 0.228520 -0.043148 0.184760 -0.025162 0.020124 0.032201 -0.055481 -0.002480 0.102899 0.196198 -0.038349 -0.006742 -0.042052 0.062494 -0.128972 -0.193051 0.230701 0.055274 -0.045951 -0.134403 -0.167357 0.001738 0.000100 0.145914 -0.099609 0.226487 -0.014871 -0.082253 -0.020144 0.044508 -0.158477 0.107075 0.050874 0.070763 -0.182115 -0.027254 -0.065134 -0.000099 -0.038255 0.028387 0.163861 -0.149408 -0.005268 0.165322 0.013410 -0.125715 -0.072272 0.054474 -0.019096 -0.080897 -0.120277 0.050645 -0.080269 -0.059548 0.123791 0.068089 0.099707 0.024816 0.012255 0.009883 -0.131058 -0.145277 -0.012001 -0.138154 -0.118773 0.168158 0.123069 -0.059561 -0.019281 -0.010663 0.190602 -0.064856 0.065488 -0.073885 -0.050279 0.124880 -0.088441 -0.131602 0.115111 -0.098671 -0.175785 0.008659 -0.180056 0.026968 0.070003 0.072803 0.162687 0.030860 -0.002898 -0.078480 0.019876 0.067215 -0.001418 0.008475 -0.156660 -0.037230 -0.086163 0.039673 -0.111625 -0.098194 -0.071450 -0.086757 0.120360 -0.242077 -0.045299 0.032823 0.068189 0.027932
13 -0.019634 -0.288088 0.026074 0.033782 -0.031439 -0.146546 0.148717 0.114541 -0.021829 0.073498 -0.061590 0.100460 0.050217 -0.176607 0.049599 -0.242182 -0.070122 -0.176915 0.054888 -0.010768 0.228908 -0.043654 0.179613 -0.024797 0.014161 0.029341 -0.052194 -0.002912 0.100650 0.196145 -0.040230 -0.007508 -0.045663 0.058235 -0.130702 -0.194262 0.236054 0.059059 -0.048163 -0.137290 -0.163577 -0.001231 0.002633 0.149649 -0.097882 0.226450 -0.009132 -0.082323 -0.022333 0.048145 -0.161037 0.112397 0.051400 0.068429 -0.181811 -0.033052 -0.069961 0.000493 -0.031341 0.025317 0.162374 -0.144112 -0.006146 0.162865 0.014444 -0.129018 -0.072914 0.052156 -0.018425 -0.087299 -0.119567 0.048878 -0.082582 -0.057193 0.121291 0.062006 0.091292 0.020930 0.007348 0.006279 -0.126622 -0.149563 -0.015362 -0.136668 -0.119087 0.164948 0.122052 -0.058281 -0.019933 -0.008748 0.194415 -0.063165 0.060268 -0.072995 -0.047328 0.122161 -0.085373 -0.136014 0.109554 -0.093836 -0.168698 0.005291 -0.180141 0.024855 0.064557 0.064714 0.163864 0.031414 -0.004098 -0.077486 0.025310 0.068763 0.002573 0.011918 -0.157731 -0.036423 -0.085963 0.045416 -0.111419 -0.095076 -0.068346 -0.078394 0.125062 -0.235732 -0.048995 0.039065 0.073485 0.033387
17 -0.011266 -0.338399 0.003137 0.053913 -0.060291 -0.208129 0.182174 0.212171 0.069077 0.071741 -0.030720 0.137220 0.051878 -0.188049 0.118233 -0.267560 -0.096731 -0.252128 0.052019 -0.068059 0.246492 -0.103827 0.178947 -0.038562 0.106313 0.027220 -0.044294 -0.049465 0.157093 0.203573 -0.025344 -0.065844 -0.028044 0.045957 -0.114840 -0.228069 0.246198 0.048862 -0.073721 -0.141289 -0.115291 -0.055728 -0.007387 0.170401 -0.152019 0.228733 0.030114 -0.056784 0.053570 0.088346 -0.214707 0.076101 0.048101 0.059419 -0.176370 -0.030561 -0.039190 0.054130 0.015420 -0.003068 0.198272 -0.154676 0.052406 0.163713 -0.037330 -0.040440 -0.082116 0.069237 0.000427 -0.101501 -0.182840 0.031765 -0.137380 -0.068435 0.214663 0.146299 0.097670 -0.045255 0.025075 -0.114219 -0.167056 -0.067422 0.008814 -0.068241 -0.145115 0.045546 0.224203 -0.085252 0.072030 0.013042 0.245109 -0.119238 0.056091 -0.024149 -0.080441 0.102113 -0.031147 -0.220973 0.152933 0.006697 -0.119433 -0.008926 -0.195952 0.066193 0.021752 0.039579 0.112928 0.003876 0.008210 -0.057038 0.028486 0.171389 0.032268 0.042676 -0.232266 -0.031844 -0.043870 0.023948 -0.102385 -0.164139 -0.026139 -0.006062 0.207743 -0.264221 -0.136571 -0.026715 0.128417 0.063630
22 -0.023316 -0.270965 0.027762 0.032274 -0.025611 -0.135472 0.134289 0.097333 -0.036770 0.067459 -0.061246 0.093927 0.048721 -0.164045 0.038045 -0.229410 -0.060662 -0.159984 0.059472 0.001902 0.214864 -0.034255 0.178028 -0.021168 0.002970 0.030074 -0.056211 -0.001097 0.088590 0.189784 -0.038547 -0.003274 -0.045781 0.057094 -0.127821 -0.179101 0.215655 0.052543 -0.043820 -0.133328 -0.162101 0.002198 0.000048 0.138756 -0.083689 0.215925 -0.018896 -0.078272 -0.026653 0.038814 -0.143858 0.108381 0.041265 0.061280 -0.167283 -0.029693 -0.063674 0.000316 -0.037915 0.028550 0.149059 -0.134526 -0.010250 0.160092 0.014785 -0.132069 -0.071115 0.053490 -0.020642 -0.072694 -0.104273 0.051513 -0.072238 -0.051693 0.104589 0.051834 0.085904 0.031101 0.012495 0.025171 -0.118394 -0.151463 -0.012660 -0.141597 -0.107502 0.171322 0.102107 -0.056167 -0.025844 -0.017374 0.172667 -0.052313 0.061732 -0.074565 -0.040567 0.121669 -0.088744 -0.113940 0.107381 -0.107667 -0.174644 0.009540 -0.166918 0.021609 0.073465 0.075229 0.163585 0.037427 -0.002551 -0.070937 0.021618 0.051757 0.000740 0.008365 -0.140230 -0.033191 -0.088455 0.043995 -0.113074 -0.083529 -0.070780 -0.089934 0.104797 -0.227418 -0.032927 0.045020 0.060281 0.024351
23 -0.034939 -0.248062 0.040916 0.034991 -0.012550 -0.094210 0.129625 0.033750 -0.086104 0.075845 -0.081250 0.077142 0.047403 -0.159605 -0.015066 -0.209725 -0.043356 -0.122610 0.053115 0.043640 0.210070 -0.005872 0.184562 -0.006935 -0.047895 0.012484 -0.080131 0.020944 0.036340 0.199198 -0.046026 0.050003 -0.048740 0.052402 -0.154352 -0.161232 0.219410 0.069126 -0.035706 -0.139987 -0.223104 0.062167 0.010521 0.117381 -0.060552 0.223418 -0.035407 -0.093596 -0.084685 0.023857 -0.103250 0.163042 0.044098 0.054534 -0.173996 -0.046676 -0.100091 -0.040573 -0.062843 0.047507 0.134879 -0.138459 -0.049386 0.173375 0.050416 -0.217119 -0.065480 0.050323 -0.036709 -0.063916 -0.056339 0.061914 -0.041261 -0.039312 0.030576 -0.007005 0.084416 0.074255 0.003949 0.114226 -0.086392 -0.206168 -0.017828 -0.195187 -0.103772 0.267455 0.025496 -0.031771 -0.099349 -0.040846 0.138218 -0.000343 0.077528 -0.091731 -0.017744 0.149467 -0.115537 -0.060131 0.088011 -0.184648 -0.222308 0.025490 -0.176031 -0.019775 0.109321 0.090722 0.208623 0.043806 0.001585 -0.074140 0.015195 -0.017548 -0.027317 -0.026294 -0.091817 -0.031665 -0.123105 0.068243 -0.123700 -0.036127 -0.100209 -0.136850 0.056124 -0.218575 0.019864 0.090832 0.012098 0.004216
15 -0.038458 -0.263047 0.045869 0.029181 -0.014418 -0.098584 0.135677 0.038733 -0.082207 0.077598 -0.078133 0.082130 0.047539 -0.160155 -0.003272 -0.222335 -0.048056 -0.132751 0.051036 0.031130 0.216421 -0.006453 0.186336 -0.010534 -0.045041 0.017875 -0.075932 0.024049 0.048319 0.193906 -0.048244 0.044144 -0.044364 0.056400 -0.148038 -0.162859 0.215514 0.067571 -0.027667 -0.138299 -0.216904 0.052663 0.007462 0.121225 -0.062071 0.225725 -0.037765 -0.095208 -0.075500 0.024673 -0.112769 0.154547 0.043385 0.062277 -0.177917 -0.044844 -0.098919 -0.038757 -0.059773 0.050823 0.137941 -0.133341 -0.045842 0.163689 0.045346 -0.198566 -0.066204 0.046940 -0.033571 -0.066210 -0.062678 0.056823 -0.044258 -0.045561 0.039303 0.000749 0.085955 0.066878 -0.001923 0.095998 -0.093204 -0.195321 -0.020441 -0.187467 -0.106732 0.248400 0.035605 -0.040506 -0.085336 -0.034086 0.143733 -0.007122 0.079298 -0.093031 -0.023142 0.147302 -0.111791 -0.061784 0.090686 -0.170936 -0.208831 0.022401 -0.178342 -0.012316 0.107927 0.086639 0.207326 0.046066 -0.004328 -0.079863 0.017774 -0.008292 -0.024649 -0.023263 -0.100559 -0.028359 -0.115948 0.067767 -0.128304 -0.039442 -0.096248 -0.136468 0.068666 -0.214257 0.008014 0.084822 0.023140 0.009877
16 -0.035362 -0.255799 0.044252 0.034510 -0.014896 -0.103085 0.135441 0.039945 -0.080567 0.078149 -0.079622 0.082784 0.045405 -0.156379 -0.002348 -0.218962 -0.049773 -0.134464 0.048096 0.031006 0.212176 -0.007805 0.189189 -0.013075 -0.039853 0.016100 -0.073359 0.021617 0.045788 0.192250 -0.047978 0.045524 -0.048626 0.051020 -0.146106 -0.159650 0.220991 0.065919 -0.034837 -0.141635 -0.216769 0.058120 0.010971 0.118696 -0.063775 0.220654 -0.030134 -0.092638 -0.079201 0.030404 -0.107203 0.157640 0.043753 0.059705 -0.172573 -0.041433 -0.095414 -0.034325 -0.058095 0.045011 0.138298 -0.141045 -0.048248 0.165651 0.045920 -0.205934 -0.066570 0.050632 -0.036648 -0.070420 -0.059637 0.055444 -0.046760 -0.043876 0.044518 -0.000393 0.087743 0.064650 -0.000075 0.101951 -0.088790 -0.198843 -0.019921 -0.189066 -0.102740 0.256203 0.037178 -0.032141 -0.085341 -0.034994 0.138182 -0.005940 0.073690 -0.087824 -0.017912 0.150090 -0.109409 -0.066593 0.088761 -0.179122 -0.209947 0.025939 -0.173169 -0.015276 0.102311 0.086324 0.202038 0.042673 0.001544 -0.073578 0.016487 -0.002848 -0.027042 -0.019086 -0.093958 -0.028005 -0.116627 0.066633 -0.122340 -0.043256 -0.097839 -0.129993 0.062587 -0.216391 0.013531 0.087606 0.018851 0.010983
27 -0.033192 -0.252335 0.041658 0.030221 -0.010966 -0.093861 0.130531 0.035722 -0.089453 0.077676 -0.080012 0.074863 0.044493 -0.152051 -0.011881 -0.213319 -0.038155 -0.124460 0.051270 0.034608 0.209537 -0.002455 0.184669 -0.006451 -0.046461 0.011288 -0.077462 0.027690 0.038244 0.194001 -0.045206 0.043945 -0.048577 0.051288 -0.144079 -0.156989 0.210610 0.067198 -0.032117 -0.139406 -0.218912 0.059467 0.008657 0.115049 -0.059193 0.220931 -0.030729 -0.095424 -0.079771 0.025542 -0.099217 0.159854 0.039571 0.060321 -0.170416 -0.043289 -0.095803 -0.038303 -0.059412 0.051603 0.128155 -0.130670 -0.052847 0.166188 0.047566 -0.208636 -0.067637 0.048411 -0.038495 -0.066052 -0.058846 0.062128 -0.043190 -0.042686 0.031201 -0.009167 0.083991 0.068427 -0.001384 0.111266 -0.090225 -0.199214 -0.021367 -0.183499 -0.102396 0.257582 0.029579 -0.033027 -0.096797 -0.037107 0.131102 -0.006357 0.077674 -0.088871 -0.016438 0.147243 -0.114255 -0.060976 0.089813 -0.185715 -0.220234 0.025825 -0.171176 -0.019511 0.109648 0.094024 0.210848 0.042634 -0.004376 -0.072443 0.019632 -0.014751 -0.027031 -0.024564 -0.087949 -0.032328 -0.118668 0.064806 -0.124617 -0.036540 -0.102951 -0.133945 0.059338 -0.215604 0.015905 0.092475 0.015328 0.004819
19 -0.029535 -0.265257 0.043317 0.032502 -0.017776 -0.109316 0.136100 0.050502 -0.069157 0.076866 -0.079412 0.087116 0.046354 -0.162572 0.001355 -0.221246 -0.052575 -0.142930 0.055023 0.031258 0.217990 -0.018451 0.186695 -0.010497 -0.031632 0.018200 -0.073638 0.017520 0.052684 0.194879 -0.043259 0.035943 -0.046275 0.049695 -0.148750 -0.166777 0.216692 0.070862 -0.032902 -0.139186 -0.208842 0.047776 0.008290 0.121362 -0.067881 0.225590 -0.024340 -0.096523 -0.067895 0.032770 -0.118121 0.151562 0.039900 0.058469 -0.173649 -0.038994 -0.093948 -0.026632 -0.049664 0.044712 0.139944 -0.140697 -0.037362 0.172490 0.038755 -0.198157 -0.065870 0.048320 -0.035778 -0.074174 -0.069949 0.057154 -0.052159 -0.042228 0.050945 0.005607 0.089647 0.061955 0.000218 0.083236 -0.100461 -0.189621 -0.019031 -0.185166 -0.108739 0.240077 0.052942 -0.037960 -0.080045 -0.034708 0.149326 -0.011908 0.080129 -0.083022 -0.026361 0.149640 -0.109315 -0.075849 0.095510 -0.166356 -0.205642 0.024178 -0.180908 -0.011057 0.097331 0.086321 0.196984 0.041327 -0.002463 -0.075038 0.017163 0.005365 -0.019015 -0.019108 -0.102340 -0.027239 -0.106452 0.065678 -0.124764 -0.044733 -0.094487 -0.124764 0.071505 -0.224182 -0.002665 0.080947 0.023925 0.008414
21 -0.044254 -0.258465 0.051887 0.030089 -0.011990 -0.095198 0.134644 0.014457 -0.107099 0.087927 -0.091142 0.077953 0.050341 -0.170729 -0.024586 -0.222486 -0.042135 -0.121360 0.055111 0.052785 0.226574 0.003566 0.201270 -0.006249 -0.066133 0.011919 -0.082777 0.034262 0.032718 0.208195 -0.047760 0.063913 -0.053736 0.060227 -0.169390 -0.166567 0.230050 0.082105 -0.028035 -0.147904 -0.252637 0.082269 0.009080 0.116168 -0.061267 0.241477 -0.040695 -0.107857 -0.099034 0.020027 -0.099615 0.186069 0.048346 0.060277 -0.190851 -0.045518 -0.112233 -0.055371 -0.076930 0.064295 0.136833 -0.145790 -0.066556 0.187561 0.064659 -0.250127 -0.069480 0.044061 -0.045049 -0.071996 -0.045258 0.063129 -0.036965 -0.037747 0.021187 -0.020829 0.087386 0.086677 0.000804 0.143179 -0.090178 -0.231272 -0.027892 -0.227560 -0.109175 0.303531 0.008468 -0.033068 -0.116827 -0.048818 0.141688 0.012150 0.086327 -0.101586 -0.010788 0.167137 -0.135459 -0.044815 0.088951 -0.217412 -0.245468 0.028710 -0.190924 -0.022280 0.129162 0.104377 0.231927 0.048183 -0.002726 -0.085224 0.021820 -0.029967 -0.034607 -0.031203 -0.084287 -0.028383 -0.138765 0.075981 -0.135003 -0.021300 -0.115873 -0.161629 0.048304 -0.227548 0.036594 0.111033 0.004759 -0.004326
10 -0.029996 -0.265608 0.033705 0.033722 -0.018322 -0.112460 0.138141 0.066251 -0.057438 0.072309 -0.068575 0.089897 0.045374 -0.160083 0.011025 -0.221192 -0.051131 -0.142174 0.050792 0.020269 0.218140 -0.019874 0.184740 -0.011991 -0.022920 0.020719 -0.065845 0.010515 0.063475 0.192271 -0.046091 0.021441 -0.043654 0.059003 -0.143809 -0.172280 0.224377 0.059614 -0.040908 -0.140989 -0.199791 0.032586 0.008423 0.131924 -0.072811 0.226055 -0.021900 -0.090155 -0.052556 0.028358 -0.125717 0.140033 0.048151 0.059276 -0.175681 -0.033707 -0.082321 -0.026701 -0.056116 0.043566 0.145019 -0.139765 -0.034930 0.167707 0.033009 -0.174926 -0.069916 0.047922 -0.035431 -0.076043 -0.079216 0.053840 -0.055745 -0.047303 0.073076 0.024675 0.086305 0.049652 0.000790 0.069532 -0.108017 -0.181657 -0.018286 -0.164857 -0.110975 0.222672 0.061304 -0.045973 -0.062635 -0.029704 0.162240 -0.027133 0.075963 -0.079565 -0.027006 0.140443 -0.104148 -0.091539 0.098925 -0.145457 -0.202268 0.015510 -0.178501 0.003204 0.090752 0.083141 0.193668 0.044588 -0.005674 -0.073263 0.022724 0.015143 -0.012573 -0.011428 -0.115725 -0.032754 -0.104694 0.058018 -0.119564 -0.062789 -0.088714 -0.116647 0.083023 -0.223848 -0.003695 0.067777 0.034576 0.016440
12 -0.023907 -0.289758 0.020157 0.033973 -0.035702 -0.153912 0.145174 0.123793 -0.010967 0.070896 -0.049158 0.108005 0.047057 -0.168855 0.058037 -0.235797 -0.073512 -0.180172 0.055827 -0.022802 0.222763 -0.047462 0.176743 -0.026807 0.026800 0.024492 -0.050614 -0.010466 0.105068 0.188569 -0.033235 -0.015306 -0.044748 0.054907 -0.122968 -0.187354 0.225408 0.054728 -0.051144 -0.133483 -0.153497 -0.008631 0.002761 0.143102 -0.104958 0.222176 -0.001255 -0.076898 -0.012295 0.049776 -0.162508 0.105822 0.044686 0.059344 -0.177210 -0.032523 -0.057689 0.010654 -0.026884 0.025715 0.164755 -0.140903 0.000168 0.164782 -0.001573 -0.111352 -0.068620 0.056764 -0.015377 -0.080639 -0.119109 0.048827 -0.087540 -0.053989 0.131327 0.073553 0.096089 0.014318 0.013358 -0.004871 -0.130675 -0.128303 -0.013976 -0.124347 -0.119423 0.145395 0.130942 -0.060287 -0.006637 -0.012189 0.193425 -0.065291 0.060194 -0.061093 -0.048119 0.114353 -0.071021 -0.148711 0.116684 -0.077356 -0.165044 0.000251 -0.176429 0.031036 0.058870 0.060300 0.149845 0.026692 0.005113 -0.071544 0.018594 0.083791 0.006528 0.017056 -0.161990 -0.029732 -0.075731 0.041373 -0.110399 -0.106378 -0.063705 -0.068619 0.131178 -0.233664 -0.060728 0.027055 0.071504 0.034130
